<?xml version="1.0"?>
<opencv_storage>
<cascade>
  <stageType>BOOST</stageType>
  <featureType>HAAR</featureType>
  <height>40</height>
  <width>20</width>
  <stageParams>
    <boostType>GAB</boostType>
    <minHitRate>9.9900001287460327e-01</minHitRate>
    <maxFalseAlarm>5.0000000000000000e-01</maxFalseAlarm>
    <weightTrimRate>9.4999999999999996e-01</weightTrimRate>
    <maxDepth>1</maxDepth>
    <maxWeakCount>100</maxWeakCount></stageParams>
  <featureParams>
    <maxCatCount>0</maxCatCount>
    <featSize>1</featSize>
    <mode>BASIC</mode></featureParams>
  <stageNum>12</stageNum>
  <stages>
    <!-- stage 0 -->
    <_>
      <maxWeakCount>2</maxWeakCount>
      <stageThreshold>-8.4421247243881226e-02</stageThreshold>
      <weakClassifiers>
        <_>
          <internalNodes>
            0 -1 31 4.1821993887424469e-02</internalNodes>
          <leafValues>
            -7.3913043737411499e-01 1.</leafValues></_>
        <_>
          <internalNodes>
            0 -1 1 1.3638444943353534e-04</internalNodes>
          <leafValues>
            6.5470916032791138e-01 -8.8811039924621582e-01</leafValues></_></weakClassifiers></_>
    <!-- stage 1 -->
    <_>
      <maxWeakCount>3</maxWeakCount>
      <stageThreshold>-5.8722519874572754e-01</stageThreshold>
      <weakClassifiers>
        <_>
          <internalNodes>
            0 -1 32 3.7167698144912720e-02</internalNodes>
          <leafValues>
            -7.1428573131561279e-01 8.7096774578094482e-01</leafValues></_>
        <_>
          <internalNodes>
            0 -1 23 9.8355849331710488e-06</internalNodes>
          <leafValues>
            -6.9539606571197510e-01 7.7994632720947266e-01</leafValues></_>
        <_>
          <internalNodes>
            0 -1 13 1.1668805200315546e-05</internalNodes>
          <leafValues>
            -6.2179285287857056e-01 8.2245653867721558e-01</leafValues></_></weakClassifiers></_>
    <!-- stage 2 -->
    <_>
      <maxWeakCount>3</maxWeakCount>
      <stageThreshold>-4.1367760300636292e-01</stageThreshold>
      <weakClassifiers>
        <_>
          <internalNodes>
            0 -1 4 -8.9063253253698349e-03</internalNodes>
          <leafValues>
            9.3333333730697632e-01 -7.1739131212234497e-01</leafValues></_>
        <_>
          <internalNodes>
            0 -1 21 -1.3505001334124245e-05</internalNodes>
          <leafValues>
            9.0579390525817871e-01 -6.4942121505737305e-01</leafValues></_>
        <_>
          <internalNodes>
            0 -1 8 -5.3176656365394592e-05</internalNodes>
          <leafValues>
            9.5313489437103271e-01 -5.5315780639648438e-01</leafValues></_></weakClassifiers></_>
    <!-- stage 3 -->
    <_>
      <maxWeakCount>3</maxWeakCount>
      <stageThreshold>-3.9308017492294312e-01</stageThreshold>
      <weakClassifiers>
        <_>
          <internalNodes>
            0 -1 16 -9.3592032499145716e-05</internalNodes>
          <leafValues>
            8.7500000000000000e-01 -7.3333334922790527e-01</leafValues></_>
        <_>
          <internalNodes>
            0 -1 3 -5.4740434279665351e-04</internalNodes>
          <leafValues>
            9.3439400196075439e-01 -6.3674062490463257e-01</leafValues></_>
        <_>
          <internalNodes>
            0 -1 18 2.3680701269768178e-04</internalNodes>
          <leafValues>
            -5.6822597980499268e-01 9.7699379920959473e-01</leafValues></_></weakClassifiers></_>
    <!-- stage 4 -->
    <_>
      <maxWeakCount>3</maxWeakCount>
      <stageThreshold>-3.7516102194786072e-01</stageThreshold>
      <weakClassifiers>
        <_>
          <internalNodes>
            0 -1 34 2.8307654429227114e-03</internalNodes>
          <leafValues>
            -6.4948451519012451e-01 1.</leafValues></_>
        <_>
          <internalNodes>
            0 -1 22 5.6438421597704291e-04</internalNodes>
          <leafValues>
            -5.9388244152069092e-01 7.9508697986602783e-01</leafValues></_>
        <_>
          <internalNodes>
            0 -1 7 -2.2830017842352390e-03</internalNodes>
          <leafValues>
            8.6820596456527710e-01 -4.6495011448860168e-01</leafValues></_></weakClassifiers></_>
    <!-- stage 5 -->
    <_>
      <maxWeakCount>3</maxWeakCount>
      <stageThreshold>-4.4094592332839966e-01</stageThreshold>
      <weakClassifiers>
        <_>
          <internalNodes>
            0 -1 6 -4.8252837732434273e-03</internalNodes>
          <leafValues>
            7.4193549156188965e-01 -6.7032968997955322e-01</leafValues></_>
        <_>
          <internalNodes>
            0 -1 12 7.2590315539855510e-05</internalNodes>
          <leafValues>
            -5.1064682006835938e-01 8.3090645074844360e-01</leafValues></_>
        <_>
          <internalNodes>
            0 -1 14 -1.4292166270024609e-05</internalNodes>
          <leafValues>
            7.8976327180862427e-01 -6.0152268409729004e-01</leafValues></_></weakClassifiers></_>
    <!-- stage 6 -->
    <_>
      <maxWeakCount>3</maxWeakCount>
      <stageThreshold>-3.8579264283180237e-01</stageThreshold>
      <weakClassifiers>
        <_>
          <internalNodes>
            0 -1 33 -2.3576556704938412e-03</internalNodes>
          <leafValues>
            1. -6.0000002384185791e-01</leafValues></_>
        <_>
          <internalNodes>
            0 -1 25 -6.4889354689512402e-05</internalNodes>
          <leafValues>
            6.8344205617904663e-01 -5.9373992681503296e-01</leafValues></_>
        <_>
          <internalNodes>
            0 -1 30 -1.0435722069814801e-03</internalNodes>
          <leafValues>
            8.6689257621765137e-01 -4.6923470497131348e-01</leafValues></_></weakClassifiers></_>
    <!-- stage 7 -->
    <_>
      <maxWeakCount>3</maxWeakCount>
      <stageThreshold>-4.5804578065872192e-01</stageThreshold>
      <weakClassifiers>
        <_>
          <internalNodes>
            0 -1 26 -1.0588046163320541e-02</internalNodes>
          <leafValues>
            8.3999997377395630e-01 -6.0824739933013916e-01</leafValues></_>
        <_>
          <internalNodes>
            0 -1 20 8.7457783592981286e-06</internalNodes>
          <leafValues>
            -5.8600956201553345e-01 6.9573402404785156e-01</leafValues></_>
        <_>
          <internalNodes>
            0 -1 15 2.7010934427380562e-03</internalNodes>
          <leafValues>
            -5.4553234577178955e-01 8.8127660751342773e-01</leafValues></_></weakClassifiers></_>
    <!-- stage 8 -->
    <_>
      <maxWeakCount>4</maxWeakCount>
      <stageThreshold>-1.6639286279678345e-01</stageThreshold>
      <weakClassifiers>
        <_>
          <internalNodes>
            0 -1 28 -7.3413626523688436e-05</internalNodes>
          <leafValues>
            4.8717948794364929e-01 -6.8674701452255249e-01</leafValues></_>
        <_>
          <internalNodes>
            0 -1 9 9.8355849331710488e-06</internalNodes>
          <leafValues>
            -5.4486024379730225e-01 7.3055720329284668e-01</leafValues></_>
        <_>
          <internalNodes>
            0 -1 2 5.4712887504138052e-05</internalNodes>
          <leafValues>
            4.0908333659172058e-01 -1.</leafValues></_>
        <_>
          <internalNodes>
            0 -1 17 9.1290303316782229e-06</internalNodes>
          <leafValues>
            -5.1779544353485107e-01 7.7765834331512451e-01</leafValues></_></weakClassifiers></_>
    <!-- stage 9 -->
    <_>
      <maxWeakCount>3</maxWeakCount>
      <stageThreshold>-5.4525321722030640e-01</stageThreshold>
      <weakClassifiers>
        <_>
          <internalNodes>
            0 -1 0 -8.8806438725441694e-04</internalNodes>
          <leafValues>
            8.1250000000000000e-01 -7.1111112833023071e-01</leafValues></_>
        <_>
          <internalNodes>
            0 -1 19 -2.0043786207679659e-05</internalNodes>
          <leafValues>
            7.4922543764114380e-01 -6.5026479959487915e-01</leafValues></_>
        <_>
          <internalNodes>
            0 -1 24 -2.4867285043001175e-02</internalNodes>
          <leafValues>
            8.9548653364181519e-01 -5.8336752653121948e-01</leafValues></_></weakClassifiers></_>
    <!-- stage 10 -->
    <_>
      <maxWeakCount>2</maxWeakCount>
      <stageThreshold>2.2077774628996849e-03</stageThreshold>
      <weakClassifiers>
        <_>
          <internalNodes>
            0 -1 10 2.3337610400631092e-05</internalNodes>
          <leafValues>
            -7.2093021869659424e-01 6.6666668653488159e-01</leafValues></_>
        <_>
          <internalNodes>
            0 -1 27 1.4948432799428701e-03</internalNodes>
          <leafValues>
            -6.6445887088775635e-01 7.5499397516250610e-01</leafValues></_></weakClassifiers></_>
    <!-- stage 11 -->
    <_>
      <maxWeakCount>3</maxWeakCount>
      <stageThreshold>-8.0889928340911865e-01</stageThreshold>
      <weakClassifiers>
        <_>
          <internalNodes>
            0 -1 5 -6.9981724955141544e-03</internalNodes>
          <leafValues>
            8.5714286565780640e-01 -6.5957444906234741e-01</leafValues></_>
        <_>
          <internalNodes>
            0 -1 11 3.7262972909957170e-05</internalNodes>
          <leafValues>
            7.0751225948333740e-01 -6.3545912504196167e-01</leafValues></_>
        <_>
          <internalNodes>
            0 -1 29 -1.0075839236378670e-04</internalNodes>
          <leafValues>
            -8.1162077188491821e-01 4.8613435029983521e-01</leafValues></_></weakClassifiers></_></stages>
  <features>
    <_>
      <rects>
        <_>
          0 0 3 8 -1.</_>
        <_>
          1 0 1 8 3.</_></rects>
      <tilted>0</tilted></_>
    <_>
      <rects>
        <_>
          0 0 2 6 -1.</_>
        <_>
          0 3 2 3 2.</_></rects>
      <tilted>0</tilted></_>
    <_>
      <rects>
        <_>
          0 1 1 3 -1.</_>
        <_>
          0 2 1 1 3.</_></rects>
      <tilted>0</tilted></_>
    <_>
      <rects>
        <_>
          0 4 2 2 -1.</_>
        <_>
          1 4 1 2 2.</_></rects>
      <tilted>0</tilted></_>
    <_>
      <rects>
        <_>
          0 9 2 24 -1.</_>
        <_>
          1 9 1 24 2.</_></rects>
      <tilted>0</tilted></_>
    <_>
      <rects>
        <_>
          0 17 2 15 -1.</_>
        <_>
          1 17 1 15 2.</_></rects>
      <tilted>0</tilted></_>
    <_>
      <rects>
        <_>
          0 29 2 9 -1.</_>
        <_>
          1 29 1 9 2.</_></rects>
      <tilted>0</tilted></_>
    <_>
      <rects>
        <_>
          1 21 4 2 -1.</_>
        <_>
          3 21 2 2 2.</_></rects>
      <tilted>0</tilted></_>
    <_>
      <rects>
        <_>
          3 21 4 2 -1.</_>
        <_>
          3 21 2 1 2.</_>
        <_>
          5 22 2 1 2.</_></rects>
      <tilted>0</tilted></_>
    <_>
      <rects>
        <_>
          4 34 2 2 -1.</_>
        <_>
          4 34 1 1 2.</_>
        <_>
          5 35 1 1 2.</_></rects>
      <tilted>0</tilted></_>
    <_>
      <rects>
        <_>
          5 19 2 3 -1.</_>
        <_>
          6 19 1 3 2.</_></rects>
      <tilted>0</tilted></_>
    <_>
      <rects>
        <_>
          7 5 6 5 -1.</_>
        <_>
          9 5 2 5 3.</_></rects>
      <tilted>0</tilted></_>
    <_>
      <rects>
        <_>
          7 6 1 2 -1.</_>
        <_>
          7 7 1 1 2.</_></rects>
      <tilted>0</tilted></_>
    <_>
      <rects>
        <_>
          7 28 2 2 -1.</_>
        <_>
          7 28 1 1 2.</_>
        <_>
          8 29 1 1 2.</_></rects>
      <tilted>0</tilted></_>
    <_>
      <rects>
        <_>
          7 30 2 2 -1.</_>
        <_>
          7 30 1 1 2.</_>
        <_>
          8 31 1 1 2.</_></rects>
      <tilted>0</tilted></_>
    <_>
      <rects>
        <_>
          7 31 1 9 -1.</_>
        <_>
          7 34 1 3 3.</_></rects>
      <tilted>0</tilted></_>
    <_>
      <rects>
        <_>
          8 3 3 2 -1.</_>
        <_>
          8 4 3 1 2.</_></rects>
      <tilted>0</tilted></_>
    <_>
      <rects>
        <_>
          8 8 2 2 -1.</_>
        <_>
          8 8 1 1 2.</_>
        <_>
          9 9 1 1 2.</_></rects>
      <tilted>0</tilted></_>
    <_>
      <rects>
        <_>
          8 13 3 2 -1.</_>
        <_>
          8 14 3 1 2.</_></rects>
      <tilted>0</tilted></_>
    <_>
      <rects>
        <_>
          8 32 8 2 -1.</_>
        <_>
          8 32 4 1 2.</_>
        <_>
          12 33 4 1 2.</_></rects>
      <tilted>0</tilted></_>
    <_>
      <rects>
        <_>
          9 15 2 2 -1.</_>
        <_>
          9 15 1 1 2.</_>
        <_>
          10 16 1 1 2.</_></rects>
      <tilted>0</tilted></_>
    <_>
      <rects>
        <_>
          9 26 1 2 -1.</_>
        <_>
          9 27 1 1 2.</_></rects>
      <tilted>0</tilted></_>
    <_>
      <rects>
        <_>
          9 31 2 8 -1.</_>
        <_>
          9 31 1 4 2.</_>
        <_>
          10 35 1 4 2.</_></rects>
      <tilted>0</tilted></_>
    <_>
      <rects>
        <_>
          10 38 1 2 -1.</_>
        <_>
          10 39 1 1 2.</_></rects>
      <tilted>0</tilted></_>
    <_>
      <rects>
        <_>
          11 13 9 11 -1.</_>
        <_>
          14 13 3 11 3.</_></rects>
      <tilted>0</tilted></_>
    <_>
      <rects>
        <_>
          11 18 2 2 -1.</_>
        <_>
          11 19 2 1 2.</_></rects>
      <tilted>0</tilted></_>
    <_>
      <rects>
        <_>
          11 34 9 3 -1.</_>
        <_>
          14 34 3 3 3.</_></rects>
      <tilted>0</tilted></_>
    <_>
      <rects>
        <_>
          12 11 8 6 -1.</_>
        <_>
          12 11 4 3 2.</_>
        <_>
          16 14 4 3 2.</_></rects>
      <tilted>0</tilted></_>
    <_>
      <rects>
        <_>
          13 6 2 6 -1.</_>
        <_>
          14 6 1 6 2.</_></rects>
      <tilted>0</tilted></_>
    <_>
      <rects>
        <_>
          14 13 3 2 -1.</_>
        <_>
          15 13 1 2 3.</_></rects>
      <tilted>0</tilted></_>
    <_>
      <rects>
        <_>
          15 22 2 7 -1.</_>
        <_>
          16 22 1 7 2.</_></rects>
      <tilted>0</tilted></_>
    <_>
      <rects>
        <_>
          16 2 4 37 -1.</_>
        <_>
          18 2 2 37 2.</_></rects>
      <tilted>0</tilted></_>
    <_>
      <rects>
        <_>
          16 10 4 27 -1.</_>
        <_>
          18 10 2 27 2.</_></rects>
      <tilted>0</tilted></_>
    <_>
      <rects>
        <_>
          17 12 3 4 -1.</_>
        <_>
          18 12 1 4 3.</_></rects>
      <tilted>0</tilted></_>
    <_>
      <rects>
        <_>
          18 5 2 3 -1.</_>
        <_>
          19 5 1 3 2.</_></rects>
      <tilted>0</tilted></_></features></cascade>
</opencv_storage>
